digraph Tree {
node [shape=box, style="filled", color="black", fontname="helvetica"] ;
edge [fontname="helvetica"] ;
0 [label="worst radius <= 16.805\nentropy = 0.953\nsamples = 426\nvalue = [159, 267]\nclass = benign", fillcolor="#afd7f4"] ;
1 [label="worst concave points <= 0.136\nentropy = 0.441\nsamples = 285\nvalue = [26, 259]\nclass = benign", fillcolor="#4da7e8"] ;
0 -> 1 [labeldistance=2.5, labelangle=45, headlabel="True"] ;
2 [label="radius error <= 0.643\nentropy = 0.094\nsamples = 248\nvalue = [3, 245]\nclass = benign", fillcolor="#3b9ee5"] ;
1 -> 2 ;
3 [label="worst texture <= 33.27\nentropy = 0.039\nsamples = 243\nvalue = [1, 242]\nclass = benign", fillcolor="#3a9de5"] ;
2 -> 3 ;
4 [label="entropy = 0.0\nsamples = 228\nvalue = [0, 228]\nclass = benign", fillcolor="#399de5"] ;
3 -> 4 ;
5 [label="worst concavity <= 0.209\nentropy = 0.353\nsamples = 15\nvalue = [1, 14]\nclass = benign", fillcolor="#47a4e7"] ;
3 -> 5 ;
6 [label="entropy = 0.0\nsamples = 14\nvalue = [0, 14]\nclass = benign", fillcolor="#399de5"] ;
5 -> 6 ;
7 [label="entropy = 0.0\nsamples = 1\nvalue = [1, 0]\nclass = malignant", fillcolor="#e58139"] ;
5 -> 7 ;
8 [label="worst symmetry <= 0.208\nentropy = 0.971\nsamples = 5\nvalue = [2, 3]\nclass = benign", fillcolor="#bddef6"] ;
2 -> 8 ;
9 [label="entropy = 0.0\nsamples = 2\nvalue = [2, 0]\nclass = malignant", fillcolor="#e58139"] ;
8 -> 9 ;
10 [label="entropy = 0.0\nsamples = 3\nvalue = [0, 3]\nclass = benign", fillcolor="#399de5"] ;
8 -> 10 ;
11 [label="mean texture <= 19.71\nentropy = 0.957\nsamples = 37\nvalue = [23, 14]\nclass = malignant", fillcolor="#f5ceb2"] ;
1 -> 11 ;
12 [label="worst smoothness <= 0.178\nentropy = 0.831\nsamples = 19\nvalue = [5, 14]\nclass = benign", fillcolor="#80c0ee"] ;
11 -> 12 ;
13 [label="worst area <= 811.1\nentropy = 0.544\nsamples = 16\nvalue = [2, 14]\nclass = benign", fillcolor="#55abe9"] ;
12 -> 13 ;
14 [label="worst texture <= 26.9\nentropy = 0.353\nsamples = 15\nvalue = [1, 14]\nclass = benign", fillcolor="#47a4e7"] ;
13 -> 14 ;
15 [label="entropy = 0.0\nsamples = 13\nvalue = [0, 13]\nclass = benign", fillcolor="#399de5"] ;
14 -> 15 ;
16 [label="mean fractal dimension <= 0.065\nentropy = 1.0\nsamples = 2\nvalue = [1, 1]\nclass = malignant", fillcolor="#ffffff"] ;
14 -> 16 ;
17 [label="entropy = 0.0\nsamples = 1\nvalue = [0, 1]\nclass = benign", fillcolor="#399de5"] ;
16 -> 17 ;
18 [label="entropy = 0.0\nsamples = 1\nvalue = [1, 0]\nclass = malignant", fillcolor="#e58139"] ;
16 -> 18 ;
19 [label="entropy = 0.0\nsamples = 1\nvalue = [1, 0]\nclass = malignant", fillcolor="#e58139"] ;
13 -> 19 ;
20 [label="entropy = 0.0\nsamples = 3\nvalue = [3, 0]\nclass = malignant", fillcolor="#e58139"] ;
12 -> 20 ;
21 [label="entropy = 0.0\nsamples = 18\nvalue = [18, 0]\nclass = malignant", fillcolor="#e58139"] ;
11 -> 21 ;
22 [label="mean concavity <= 0.073\nentropy = 0.314\nsamples = 141\nvalue = [133, 8]\nclass = malignant", fillcolor="#e78945"] ;
0 -> 22 [labeldistance=2.5, labelangle=-45, headlabel="False"] ;
23 [label="mean texture <= 19.545\nentropy = 0.982\nsamples = 19\nvalue = [11, 8]\nclass = malignant", fillcolor="#f8ddc9"] ;
22 -> 23 ;
24 [label="concave points error <= 0.006\nentropy = 0.503\nsamples = 9\nvalue = [1, 8]\nclass = benign", fillcolor="#52a9e8"] ;
23 -> 24 ;
25 [label="entropy = 0.0\nsamples = 1\nvalue = [1, 0]\nclass = malignant", fillcolor="#e58139"] ;
24 -> 25 ;
26 [label="entropy = 0.0\nsamples = 8\nvalue = [0, 8]\nclass = benign", fillcolor="#399de5"] ;
24 -> 26 ;
27 [label="entropy = 0.0\nsamples = 10\nvalue = [10, 0]\nclass = malignant", fillcolor="#e58139"] ;
23 -> 27 ;
28 [label="entropy = 0.0\nsamples = 122\nvalue = [122, 0]\nclass = malignant", fillcolor="#e58139"] ;
22 -> 28 ;
}